<?xml version="1.0" encoding="UTF-8" standalone="yes"?>
<PMML xmlns="http://www.dmg.org/PMML-4_4" xmlns:data="http://jpmml.org/jpmml-model/InlineTable" version="4.4">
	<Header>
		<Application name="SkLearn2PMML package" version="0.86.2"/>
		<Timestamp>2022-09-28T08:52:33Z</Timestamp>
	</Header>
	<DataDictionary>
		<DataField name="y" optype="categorical" dataType="integer">
			<Value value="0"/>
			<Value value="1"/>
		</DataField>
		<DataField name="0" optype="continuous" dataType="float"/>
		<DataField name="1" optype="continuous" dataType="float"/>
		<DataField name="2" optype="continuous" dataType="float"/>
		<DataField name="3" optype="continuous" dataType="float"/>
		<DataField name="4" optype="continuous" dataType="float"/>
		<DataField name="5" optype="continuous" dataType="float"/>
		<DataField name="6" optype="continuous" dataType="float"/>
		<DataField name="7" optype="continuous" dataType="float"/>
		<DataField name="8" optype="continuous" dataType="float"/>
		<DataField name="9" optype="continuous" dataType="float"/>
		<DataField name="10" optype="continuous" dataType="float"/>
		<DataField name="11" optype="continuous" dataType="float"/>
		<DataField name="12" optype="continuous" dataType="float"/>
		<DataField name="13" optype="continuous" dataType="float"/>
		<DataField name="14" optype="continuous" dataType="float"/>
		<DataField name="15" optype="continuous" dataType="float"/>
		<DataField name="16" optype="continuous" dataType="float"/>
		<DataField name="17" optype="continuous" dataType="float"/>
		<DataField name="18" optype="continuous" dataType="float"/>
		<DataField name="19" optype="continuous" dataType="float"/>
		<DataField name="20" optype="continuous" dataType="float"/>
		<DataField name="21" optype="continuous" dataType="float"/>
		<DataField name="22" optype="continuous" dataType="float"/>
		<DataField name="23" optype="continuous" dataType="float"/>
		<DataField name="24" optype="continuous" dataType="float"/>
		<DataField name="25" optype="continuous" dataType="float"/>
		<DataField name="26" optype="continuous" dataType="float"/>
		<DataField name="27" optype="continuous" dataType="float"/>
		<DataField name="28" optype="continuous" dataType="float"/>
		<DataField name="29" optype="continuous" dataType="float"/>
		<DataField name="30" optype="continuous" dataType="float"/>
		<DataField name="31" optype="continuous" dataType="float"/>
		<DataField name="32" optype="continuous" dataType="float"/>
		<DataField name="33" optype="continuous" dataType="float"/>
		<DataField name="34" optype="continuous" dataType="float"/>
		<DataField name="35" optype="continuous" dataType="float"/>
		<DataField name="36" optype="continuous" dataType="float"/>
		<DataField name="37" optype="continuous" dataType="float"/>
		<DataField name="38" optype="continuous" dataType="float"/>
		<DataField name="39" optype="continuous" dataType="float"/>
		<DataField name="40" optype="continuous" dataType="float"/>
		<DataField name="41" optype="continuous" dataType="float"/>
		<DataField name="42" optype="continuous" dataType="float"/>
		<DataField name="43" optype="continuous" dataType="float"/>
		<DataField name="44" optype="continuous" dataType="float"/>
		<DataField name="45" optype="continuous" dataType="float"/>
		<DataField name="46" optype="continuous" dataType="float"/>
		<DataField name="47" optype="continuous" dataType="float"/>
		<DataField name="48" optype="continuous" dataType="float"/>
		<DataField name="49" optype="continuous" dataType="float"/>
		<DataField name="50" optype="continuous" dataType="float"/>
		<DataField name="51" optype="continuous" dataType="float"/>
		<DataField name="52" optype="continuous" dataType="float"/>
		<DataField name="53" optype="continuous" dataType="float"/>
		<DataField name="54" optype="continuous" dataType="float"/>
		<DataField name="55" optype="continuous" dataType="float"/>
		<DataField name="56" optype="continuous" dataType="float"/>
		<DataField name="57" optype="continuous" dataType="float"/>
		<DataField name="58" optype="continuous" dataType="float"/>
		<DataField name="59" optype="continuous" dataType="float"/>
		<DataField name="60" optype="continuous" dataType="float"/>
		<DataField name="61" optype="continuous" dataType="float"/>
		<DataField name="62" optype="continuous" dataType="float"/>
		<DataField name="63" optype="continuous" dataType="float"/>
		<DataField name="64" optype="continuous" dataType="float"/>
		<DataField name="65" optype="continuous" dataType="float"/>
		<DataField name="66" optype="continuous" dataType="float"/>
		<DataField name="67" optype="continuous" dataType="float"/>
		<DataField name="68" optype="continuous" dataType="float"/>
		<DataField name="69" optype="continuous" dataType="float"/>
		<DataField name="70" optype="continuous" dataType="float"/>
		<DataField name="71" optype="continuous" dataType="float"/>
		<DataField name="72" optype="continuous" dataType="float"/>
		<DataField name="73" optype="continuous" dataType="float"/>
		<DataField name="74" optype="continuous" dataType="float"/>
		<DataField name="75" optype="continuous" dataType="float"/>
		<DataField name="76" optype="continuous" dataType="float"/>
		<DataField name="77" optype="continuous" dataType="float"/>
		<DataField name="78" optype="continuous" dataType="float"/>
		<DataField name="79" optype="continuous" dataType="float"/>
		<DataField name="80" optype="continuous" dataType="float"/>
		<DataField name="81" optype="continuous" dataType="float"/>
		<DataField name="82" optype="continuous" dataType="float"/>
		<DataField name="83" optype="continuous" dataType="float"/>
		<DataField name="84" optype="continuous" dataType="float"/>
		<DataField name="85" optype="continuous" dataType="float"/>
		<DataField name="86" optype="continuous" dataType="float"/>
		<DataField name="87" optype="continuous" dataType="float"/>
		<DataField name="88" optype="continuous" dataType="float"/>
		<DataField name="89" optype="continuous" dataType="float"/>
		<DataField name="90" optype="continuous" dataType="float"/>
		<DataField name="91" optype="continuous" dataType="float"/>
		<DataField name="92" optype="continuous" dataType="float"/>
		<DataField name="93" optype="continuous" dataType="float"/>
		<DataField name="94" optype="continuous" dataType="float"/>
		<DataField name="95" optype="continuous" dataType="float"/>
		<DataField name="96" optype="continuous" dataType="float"/>
		<DataField name="97" optype="continuous" dataType="float"/>
		<DataField name="98" optype="continuous" dataType="float"/>
		<DataField name="99" optype="continuous" dataType="float"/>
		<DataField name="100" optype="continuous" dataType="float"/>
		<DataField name="101" optype="continuous" dataType="float"/>
		<DataField name="102" optype="continuous" dataType="float"/>
		<DataField name="103" optype="continuous" dataType="float"/>
		<DataField name="104" optype="continuous" dataType="float"/>
		<DataField name="105" optype="continuous" dataType="float"/>
		<DataField name="106" optype="continuous" dataType="float"/>
		<DataField name="107" optype="continuous" dataType="float"/>
		<DataField name="108" optype="continuous" dataType="float"/>
		<DataField name="109" optype="continuous" dataType="float"/>
		<DataField name="111" optype="continuous" dataType="float"/>
		<DataField name="112" optype="continuous" dataType="float"/>
		<DataField name="113" optype="continuous" dataType="float"/>
		<DataField name="114" optype="continuous" dataType="float"/>
		<DataField name="115" optype="continuous" dataType="float"/>
		<DataField name="116" optype="continuous" dataType="float"/>
		<DataField name="117" optype="continuous" dataType="float"/>
		<DataField name="118" optype="continuous" dataType="float"/>
		<DataField name="119" optype="continuous" dataType="float"/>
		<DataField name="120" optype="continuous" dataType="float"/>
		<DataField name="121" optype="continuous" dataType="float"/>
		<DataField name="122" optype="continuous" dataType="float"/>
		<DataField name="123" optype="continuous" dataType="float"/>
		<DataField name="124" optype="continuous" dataType="float"/>
		<DataField name="125" optype="continuous" dataType="float"/>
		<DataField name="126" optype="continuous" dataType="float"/>
		<DataField name="127" optype="continuous" dataType="float"/>
		<DataField name="128" optype="continuous" dataType="float"/>
		<DataField name="129" optype="continuous" dataType="float"/>
		<DataField name="130" optype="continuous" dataType="float"/>
		<DataField name="131" optype="continuous" dataType="float"/>
		<DataField name="132" optype="continuous" dataType="float"/>
		<DataField name="133" optype="continuous" dataType="float"/>
		<DataField name="134" optype="continuous" dataType="float"/>
		<DataField name="135" optype="continuous" dataType="float"/>
		<DataField name="136" optype="continuous" dataType="float"/>
		<DataField name="137" optype="continuous" dataType="float"/>
		<DataField name="138" optype="continuous" dataType="float"/>
		<DataField name="139" optype="continuous" dataType="float"/>
		<DataField name="140" optype="continuous" dataType="float"/>
		<DataField name="141" optype="continuous" dataType="float"/>
		<DataField name="142" optype="continuous" dataType="float"/>
		<DataField name="143" optype="continuous" dataType="float"/>
		<DataField name="144" optype="continuous" dataType="float"/>
		<DataField name="145" optype="continuous" dataType="float"/>
		<DataField name="146" optype="continuous" dataType="float"/>
		<DataField name="147" optype="continuous" dataType="float"/>
		<DataField name="148" optype="continuous" dataType="float"/>
		<DataField name="149" optype="continuous" dataType="float"/>
		<DataField name="150" optype="continuous" dataType="float"/>
		<DataField name="151" optype="continuous" dataType="float"/>
		<DataField name="152" optype="continuous" dataType="float"/>
		<DataField name="153" optype="continuous" dataType="float"/>
		<DataField name="154" optype="continuous" dataType="float"/>
		<DataField name="155" optype="continuous" dataType="float"/>
		<DataField name="156" optype="continuous" dataType="float"/>
		<DataField name="157" optype="continuous" dataType="float"/>
		<DataField name="158" optype="continuous" dataType="float"/>
		<DataField name="159" optype="continuous" dataType="float"/>
		<DataField name="160" optype="continuous" dataType="float"/>
		<DataField name="161" optype="continuous" dataType="float"/>
		<DataField name="162" optype="continuous" dataType="float"/>
		<DataField name="163" optype="continuous" dataType="float"/>
		<DataField name="164" optype="continuous" dataType="float"/>
		<DataField name="165" optype="continuous" dataType="float"/>
		<DataField name="166" optype="continuous" dataType="float"/>
		<DataField name="167" optype="continuous" dataType="float"/>
		<DataField name="168" optype="continuous" dataType="float"/>
		<DataField name="169" optype="continuous" dataType="float"/>
		<DataField name="170" optype="continuous" dataType="float"/>
		<DataField name="171" optype="continuous" dataType="float"/>
		<DataField name="172" optype="continuous" dataType="float"/>
		<DataField name="173" optype="continuous" dataType="float"/>
		<DataField name="174" optype="continuous" dataType="float"/>
		<DataField name="175" optype="continuous" dataType="float"/>
		<DataField name="176" optype="continuous" dataType="float"/>
		<DataField name="177" optype="continuous" dataType="float"/>
		<DataField name="178" optype="continuous" dataType="float"/>
		<DataField name="179" optype="continuous" dataType="float"/>
		<DataField name="180" optype="continuous" dataType="float"/>
		<DataField name="181" optype="continuous" dataType="float"/>
		<DataField name="182" optype="continuous" dataType="float"/>
		<DataField name="183" optype="continuous" dataType="float"/>
		<DataField name="184" optype="continuous" dataType="float"/>
		<DataField name="185" optype="continuous" dataType="float"/>
		<DataField name="186" optype="continuous" dataType="float"/>
		<DataField name="187" optype="continuous" dataType="float"/>
		<DataField name="189" optype="continuous" dataType="float"/>
		<DataField name="190" optype="continuous" dataType="float"/>
		<DataField name="193" optype="continuous" dataType="float"/>
		<DataField name="194" optype="continuous" dataType="float"/>
		<DataField name="198" optype="continuous" dataType="float"/>
		<DataField name="200" optype="continuous" dataType="float"/>
		<DataField name="202" optype="continuous" dataType="float"/>
		<DataField name="203" optype="continuous" dataType="float"/>
		<DataField name="204" optype="continuous" dataType="float"/>
		<DataField name="205" optype="continuous" dataType="float"/>
		<DataField name="206" optype="continuous" dataType="float"/>
		<DataField name="207" optype="continuous" dataType="float"/>
		<DataField name="208" optype="continuous" dataType="float"/>
		<DataField name="209" optype="continuous" dataType="float"/>
		<DataField name="210" optype="continuous" dataType="float"/>
		<DataField name="212" optype="continuous" dataType="float"/>
		<DataField name="213" optype="continuous" dataType="float"/>
		<DataField name="214" optype="continuous" dataType="float"/>
		<DataField name="215" optype="continuous" dataType="float"/>
		<DataField name="217" optype="continuous" dataType="float"/>
		<DataField name="218" optype="continuous" dataType="float"/>
		<DataField name="219" optype="continuous" dataType="float"/>
		<DataField name="221" optype="continuous" dataType="float"/>
		<DataField name="222" optype="continuous" dataType="float"/>
		<DataField name="223" optype="continuous" dataType="float"/>
		<DataField name="226" optype="continuous" dataType="float"/>
		<DataField name="227" optype="continuous" dataType="float"/>
		<DataField name="229" optype="continuous" dataType="float"/>
		<DataField name="230" optype="continuous" dataType="float"/>
		<DataField name="231" optype="continuous" dataType="float"/>
		<DataField name="232" optype="continuous" dataType="float"/>
		<DataField name="234" optype="continuous" dataType="float"/>
		<DataField name="235" optype="continuous" dataType="float"/>
		<DataField name="236" optype="continuous" dataType="float"/>
	</DataDictionary>
	<MiningModel functionName="classification" algorithmName="sklearn.ensemble._forest.RandomForestClassifier">
		<MiningSchema>
			<MiningField name="y" usageType="target"/>
			<MiningField name="111"/>
			<MiningField name="138"/>
			<MiningField name="190"/>
			<MiningField name="198"/>
			<MiningField name="209"/>
			<MiningField name="210"/>
			<MiningField name="223"/>
			<MiningField name="229"/>
			<MiningField name="134"/>
			<MiningField name="5"/>
			<MiningField name="126"/>
			<MiningField name="40"/>
			<MiningField name="1"/>
			<MiningField name="12"/>
			<MiningField name="79"/>
			<MiningField name="83"/>
			<MiningField name="16"/>
			<MiningField name="10"/>
			<MiningField name="21"/>
			<MiningField name="59"/>
			<MiningField name="101"/>
			<MiningField name="13"/>
			<MiningField name="32"/>
			<MiningField name="47"/>
			<MiningField name="23"/>
			<MiningField name="17"/>
			<MiningField name="39"/>
			<MiningField name="86"/>
			<MiningField name="34"/>
			<MiningField name="7"/>
			<MiningField name="24"/>
			<MiningField name="159"/>
			<MiningField name="29"/>
			<MiningField name="89"/>
			<MiningField name="46"/>
			<MiningField name="28"/>
			<MiningField name="131"/>
			<MiningField name="27"/>
			<MiningField name="57"/>
			<MiningField name="153"/>
			<MiningField name="42"/>
			<MiningField name="31"/>
			<MiningField name="105"/>
			<MiningField name="14"/>
			<MiningField name="2"/>
			<MiningField name="25"/>
			<MiningField name="88"/>
			<MiningField name="43"/>
			<MiningField name="11"/>
			<MiningField name="164"/>
			<MiningField name="64"/>
			<MiningField name="0"/>
			<MiningField name="81"/>
			<MiningField name="108"/>
			<MiningField name="15"/>
			<MiningField name="82"/>
			<MiningField name="22"/>
			<MiningField name="19"/>
			<MiningField name="147"/>
			<MiningField name="127"/>
			<MiningField name="149"/>
			<MiningField name="116"/>
			<MiningField name="155"/>
			<MiningField name="114"/>
			<MiningField name="187"/>
			<MiningField name="162"/>
			<MiningField name="168"/>
			<MiningField name="140"/>
			<MiningField name="166"/>
			<MiningField name="26"/>
			<MiningField name="41"/>
			<MiningField name="130"/>
			<MiningField name="30"/>
			<MiningField name="75"/>
			<MiningField name="58"/>
			<MiningField name="6"/>
			<MiningField name="92"/>
			<MiningField name="9"/>
			<MiningField name="56"/>
			<MiningField name="8"/>
			<MiningField name="180"/>
			<MiningField name="3"/>
			<MiningField name="61"/>
			<MiningField name="44"/>
			<MiningField name="66"/>
			<MiningField name="115"/>
			<MiningField name="54"/>
			<MiningField name="62"/>
			<MiningField name="80"/>
			<MiningField name="55"/>
			<MiningField name="177"/>
			<MiningField name="35"/>
			<MiningField name="69"/>
			<MiningField name="33"/>
			<MiningField name="172"/>
			<MiningField name="94"/>
			<MiningField name="45"/>
			<MiningField name="98"/>
			<MiningField name="178"/>
			<MiningField name="150"/>
			<MiningField name="173"/>
			<MiningField name="117"/>
			<MiningField name="119"/>
			<MiningField name="236"/>
			<MiningField name="4"/>
			<MiningField name="212"/>
			<MiningField name="161"/>
			<MiningField name="87"/>
			<MiningField name="53"/>
			<MiningField name="91"/>
			<MiningField name="93"/>
			<MiningField name="68"/>
			<MiningField name="52"/>
			<MiningField name="49"/>
			<MiningField name="104"/>
			<MiningField name="84"/>
			<MiningField name="205"/>
			<MiningField name="72"/>
			<MiningField name="113"/>
			<MiningField name="230"/>
			<MiningField name="71"/>
			<MiningField name="48"/>
			<MiningField name="169"/>
			<MiningField name="38"/>
			<MiningField name="18"/>
			<MiningField name="20"/>
			<MiningField name="182"/>
			<MiningField name="156"/>
			<MiningField name="144"/>
			<MiningField name="157"/>
			<MiningField name="165"/>
			<MiningField name="106"/>
			<MiningField name="78"/>
			<MiningField name="160"/>
			<MiningField name="37"/>
			<MiningField name="50"/>
			<MiningField name="170"/>
			<MiningField name="204"/>
			<MiningField name="175"/>
			<MiningField name="167"/>
			<MiningField name="85"/>
			<MiningField name="179"/>
			<MiningField name="215"/>
			<MiningField name="143"/>
			<MiningField name="213"/>
			<MiningField name="135"/>
			<MiningField name="63"/>
			<MiningField name="125"/>
			<MiningField name="73"/>
			<MiningField name="97"/>
			<MiningField name="174"/>
			<MiningField name="226"/>
			<MiningField name="136"/>
			<MiningField name="99"/>
			<MiningField name="217"/>
			<MiningField name="112"/>
			<MiningField name="176"/>
			<MiningField name="67"/>
			<MiningField name="121"/>
			<MiningField name="90"/>
			<MiningField name="158"/>
			<MiningField name="234"/>
			<MiningField name="95"/>
			<MiningField name="100"/>
			<MiningField name="60"/>
			<MiningField name="122"/>
			<MiningField name="77"/>
			<MiningField name="36"/>
			<MiningField name="132"/>
			<MiningField name="152"/>
			<MiningField name="200"/>
			<MiningField name="222"/>
			<MiningField name="123"/>
			<MiningField name="235"/>
			<MiningField name="227"/>
			<MiningField name="163"/>
			<MiningField name="74"/>
			<MiningField name="154"/>
			<MiningField name="129"/>
			<MiningField name="221"/>
			<MiningField name="120"/>
			<MiningField name="214"/>
			<MiningField name="51"/>
			<MiningField name="232"/>
			<MiningField name="107"/>
			<MiningField name="102"/>
			<MiningField name="128"/>
			<MiningField name="109"/>
			<MiningField name="70"/>
			<MiningField name="148"/>
			<MiningField name="76"/>
			<MiningField name="171"/>
			<MiningField name="184"/>
			<MiningField name="133"/>
			<MiningField name="139"/>
			<MiningField name="141"/>
			<MiningField name="103"/>
			<MiningField name="124"/>
			<MiningField name="203"/>
			<MiningField name="65"/>
			<MiningField name="183"/>
			<MiningField name="96"/>
			<MiningField name="118"/>
			<MiningField name="185"/>
			<MiningField name="181"/>
			<MiningField name="137"/>
			<MiningField name="151"/>
			<MiningField name="193"/>
			<MiningField name="202"/>
			<MiningField name="207"/>
			<MiningField name="206"/>
			<MiningField name="146"/>
			<MiningField name="142"/>
			<MiningField name="208"/>
			<MiningField name="231"/>
			<MiningField name="145"/>
			<MiningField name="186"/>
			<MiningField name="219"/>
			<MiningField name="189"/>
			<MiningField name="218"/>
			<MiningField name="194"/>
		</MiningSchema>
		<Output>
			<OutputField name="probability(0)" optype="continuous" dataType="double" feature="probability" value="0"/>
			<OutputField name="probability(1)" optype="continuous" dataType="double" feature="probability" value="1"/>
		</Output>
		<LocalTransformations>
			<DerivedField name="double(134)" optype="continuous" dataType="double">
				<FieldRef field="134"/>
			</DerivedField>
			<DerivedField name="double(5)" optype="continuous" dataType="double">
				<FieldRef field="5"/>
			</DerivedField>
			<DerivedField name="double(126)" optype="continuous" dataType="double">
				<FieldRef field="126"/>
			</DerivedField>
			<DerivedField name="double(40)" optype="continuous" dataType="double">
				<FieldRef field="40"/>
			</DerivedField>
			<DerivedField name="double(1)" optype="continuous" dataType="double">
				<FieldRef field="1"/>
			</DerivedField>
			<DerivedField name="double(12)" optype="continuous" dataType="double">
				<FieldRef field="12"/>
			</DerivedField>
			<DerivedField name="double(79)" optype="continuous" dataType="double">
				<FieldRef field="79"/>
			</DerivedField>
			<DerivedField name="double(83)" optype="continuous" dataType="double">
				<FieldRef field="83"/>
			</DerivedField>
			<DerivedField name="double(16)" optype="continuous" dataType="double">
				<FieldRef field="16"/>
			</DerivedField>
			<DerivedField name="double(10)" optype="continuous" dataType="double">
				<FieldRef field="10"/>
			</DerivedField>
			<DerivedField name="double(21)" optype="continuous" dataType="double">
				<FieldRef field="21"/>
			</DerivedField>
			<DerivedField name="double(59)" optype="continuous" dataType="double">
				<FieldRef field="59"/>
			</DerivedField>
			<DerivedField name="double(101)" optype="continuous" dataType="double">
				<FieldRef field="101"/>
			</DerivedField>
			<DerivedField name="double(13)" optype="continuous" dataType="double">
				<FieldRef field="13"/>
			</DerivedField>
			<DerivedField name="double(32)" optype="continuous" dataType="double">
				<FieldRef field="32"/>
			</DerivedField>
			<DerivedField name="double(47)" optype="continuous" dataType="double">
				<FieldRef field="47"/>
			</DerivedField>
			<DerivedField name="double(23)" optype="continuous" dataType="double">
				<FieldRef field="23"/>
			</DerivedField>
			<DerivedField name="double(17)" optype="continuous" dataType="double">
				<FieldRef field="17"/>
			</DerivedField>
			<DerivedField name="double(39)" optype="continuous" dataType="double">
				<FieldRef field="39"/>
			</DerivedField>
			<DerivedField name="double(86)" optype="continuous" dataType="double">
				<FieldRef field="86"/>
			</DerivedField>
			<DerivedField name="double(34)" optype="continuous" dataType="double">
				<FieldRef field="34"/>
			</DerivedField>
			<DerivedField name="double(7)" optype="continuous" dataType="double">
				<FieldRef field="7"/>
			</DerivedField>
			<DerivedField name="double(24)" optype="continuous" dataType="double">
				<FieldRef field="24"/>
			</DerivedField>
			<DerivedField name="double(159)" optype="continuous" dataType="double">
				<FieldRef field="159"/>
			</DerivedField>
			<DerivedField name="double(29)" optype="continuous" dataType="double">
				<FieldRef field="29"/>
			</DerivedField>
			<DerivedField name="double(89)" optype="continuous" dataType="double">
				<FieldRef field="89"/>
			</DerivedField>
			<DerivedField name="double(46)" optype="continuous" dataType="double">
				<FieldRef field="46"/>
			</DerivedField>
			<DerivedField name="double(28)" optype="continuous" dataType="double">
				<FieldRef field="28"/>
			</DerivedField>
			<DerivedField name="double(131)" optype="continuous" dataType="double">
				<FieldRef field="131"/>
			</DerivedField>
			<DerivedField name="double(27)" optype="continuous" dataType="double">
				<FieldRef field="27"/>
			</DerivedField>
			<DerivedField name="double(57)" optype="continuous" dataType="double">
				<FieldRef field="57"/>
			</DerivedField>
			<DerivedField name="double(153)" optype="continuous" dataType="double">
				<FieldRef field="153"/>
			</DerivedField>
			<DerivedField name="double(42)" optype="continuous" dataType="double">
				<FieldRef field="42"/>
			</DerivedField>
			<DerivedField name="double(31)" optype="continuous" dataType="double">
				<FieldRef field="31"/>
			</DerivedField>
			<DerivedField name="double(105)" optype="continuous" dataType="double">
				<FieldRef field="105"/>
			</DerivedField>
			<DerivedField name="double(14)" optype="continuous" dataType="double">
				<FieldRef field="14"/>
			</DerivedField>
			<DerivedField name="double(2)" optype="continuous" dataType="double">
				<FieldRef field="2"/>
			</DerivedField>
			<DerivedField name="double(25)" optype="continuous" dataType="double">
				<FieldRef field="25"/>
			</DerivedField>
			<DerivedField name="double(88)" optype="continuous" dataType="double">
				<FieldRef field="88"/>
			</DerivedField>
			<DerivedField name="double(43)" optype="continuous" dataType="double">
				<FieldRef field="43"/>
			</DerivedField>
			<DerivedField name="double(11)" optype="continuous" dataType="double">
				<FieldRef field="11"/>
			</DerivedField>
			<DerivedField name="double(164)" optype="continuous" dataType="double">
				<FieldRef field="164"/>
			</DerivedField>
			<DerivedField name="double(64)" optype="continuous" dataType="double">
				<FieldRef field="64"/>
			</DerivedField>
			<DerivedField name="double(0)" optype="continuous" dataType="double">
				<FieldRef field="0"/>
			</DerivedField>
			<DerivedField name="double(81)" optype="continuous" dataType="double">
				<FieldRef field="81"/>
			</DerivedField>
			<DerivedField name="double(108)" optype="continuous" dataType="double">
				<FieldRef field="108"/>
			</DerivedField>
			<DerivedField name="double(15)" optype="continuous" dataType="double">
				<FieldRef field="15"/>
			</DerivedField>
			<DerivedField name="double(82)" optype="continuous" dataType="double">
				<FieldRef field="82"/>
			</DerivedField>
			<DerivedField name="double(22)" optype="continuous" dataType="double">
				<FieldRef field="22"/>
			</DerivedField>
			<DerivedField name="double(19)" optype="continuous" dataType="double">
				<FieldRef field="19"/>
			</DerivedField>
			<DerivedField name="double(147)" optype="continuous" dataType="double">
				<FieldRef field="147"/>
			</DerivedField>
			<DerivedField name="double(127)" optype="continuous" dataType="double">
				<FieldRef field="127"/>
			</DerivedField>
			<DerivedField name="double(149)" optype="continuous" dataType="double">
				<FieldRef field="149"/>
			</DerivedField>
			<DerivedField name="double(116)" optype="continuous" dataType="double">
				<FieldRef field="116"/>
			</DerivedField>
			<DerivedField name="double(155)" optype="continuous" dataType="double">
				<FieldRef field="155"/>
			</DerivedField>
			<DerivedField name="double(114)" optype="continuous" dataType="double">
				<FieldRef field="114"/>
			</DerivedField>
			<DerivedField name="double(187)" optype="continuous" dataType="double">
				<FieldRef field="187"/>
			</DerivedField>
			<DerivedField name="double(162)" optype="continuous" dataType="double">
				<FieldRef field="162"/>
			</DerivedField>
			<DerivedField name="double(168)" optype="continuous" dataType="double">
				<FieldRef field="168"/>
			</DerivedField>
			<DerivedField name="double(140)" optype="continuous" dataType="double">
				<FieldRef field="140"/>
			</DerivedField>
			<DerivedField name="double(166)" optype="continuous" dataType="double">
				<FieldRef field="166"/>
			</DerivedField>
			<DerivedField name="double(26)" optype="continuous" dataType="double">
				<FieldRef field="26"/>
			</DerivedField>
			<DerivedField name="double(41)" optype="continuous" dataType="double">
				<FieldRef field="41"/>
			</DerivedField>
			<DerivedField name="double(130)" optype="continuous" dataType="double">
				<FieldRef field="130"/>
			</DerivedField>
			<DerivedField name="double(30)" optype="continuous" dataType="double">
				<FieldRef field="30"/>
			</DerivedField>
			<DerivedField name="double(75)" optype="continuous" dataType="double">
				<FieldRef field="75"/>
			</DerivedField>
			<DerivedField name="double(58)" optype="continuous" dataType="double">
				<FieldRef field="58"/>
			</DerivedField>
			<DerivedField name="double(6)" optype="continuous" dataType="double">
				<FieldRef field="6"/>
			</DerivedField>
			<DerivedField name="double(92)" optype="continuous" dataType="double">
				<FieldRef field="92"/>
			</DerivedField>
			<DerivedField name="double(9)" optype="continuous" dataType="double">
				<FieldRef field="9"/>
			</DerivedField>
			<DerivedField name="double(56)" optype="continuous" dataType="double">
				<FieldRef field="56"/>
			</DerivedField>
			<DerivedField name="double(8)" optype="continuous" dataType="double">
				<FieldRef field="8"/>
			</DerivedField>
			<DerivedField name="double(180)" optype="continuous" dataType="double">
				<FieldRef field="180"/>
			</DerivedField>
			<DerivedField name="double(3)" optype="continuous" dataType="double">
				<FieldRef field="3"/>
			</DerivedField>
			<DerivedField name="double(61)" optype="continuous" dataType="double">
				<FieldRef field="61"/>
			</DerivedField>
			<DerivedField name="double(44)" optype="continuous" dataType="double">
				<FieldRef field="44"/>
			</DerivedField>
			<DerivedField name="double(66)" optype="continuous" dataType="double">
				<FieldRef field="66"/>
			</DerivedField>
			<DerivedField name="double(115)" optype="continuous" dataType="double">
				<FieldRef field="115"/>
			</DerivedField>
			<DerivedField name="double(54)" optype="continuous" dataType="double">
				<FieldRef field="54"/>
			</DerivedField>
			<DerivedField name="double(62)" optype="continuous" dataType="double">
				<FieldRef field="62"/>
			</DerivedField>
			<DerivedField name="double(80)" optype="continuous" dataType="double">
				<FieldRef field="80"/>
			</DerivedField>
			<DerivedField name="double(55)" optype="continuous" dataType="double">
				<FieldRef field="55"/>
			</DerivedField>
			<DerivedField name="double(177)" optype="continuous" dataType="double">
				<FieldRef field="177"/>
			</DerivedField>
			<DerivedField name="double(35)" optype="continuous" dataType="double">
				<FieldRef field="35"/>
			</DerivedField>
			<DerivedField name="double(69)" optype="continuous" dataType="double">
				<FieldRef field="69"/>
			</DerivedField>
			<DerivedField name="double(33)" optype="continuous" dataType="double">
				<FieldRef field="33"/>
			</DerivedField>
			<DerivedField name="double(172)" optype="continuous" dataType="double">
				<FieldRef field="172"/>
			</DerivedField>
			<DerivedField name="double(94)" optype="continuous" dataType="double">
				<FieldRef field="94"/>
			</DerivedField>
			<DerivedField name="double(45)" optype="continuous" dataType="double">
				<FieldRef field="45"/>
			</DerivedField>
			<DerivedField name="double(98)" optype="continuous" dataType="double">
				<FieldRef field="98"/>
			</DerivedField>
			<DerivedField name="double(178)" optype="continuous" dataType="double">
				<FieldRef field="178"/>
			</DerivedField>
			<DerivedField name="double(150)" optype="continuous" dataType="double">
				<FieldRef field="150"/>
			</DerivedField>
			<DerivedField name="double(173)" optype="continuous" dataType="double">
				<FieldRef field="173"/>
			</DerivedField>
			<DerivedField name="double(117)" optype="continuous" dataType="double">
				<FieldRef field="117"/>
			</DerivedField>
			<DerivedField name="double(119)" optype="continuous" dataType="double">
				<FieldRef field="119"/>
			</DerivedField>
			<DerivedField name="double(236)" optype="continuous" dataType="double">
				<FieldRef field="236"/>
			</DerivedField>
			<DerivedField name="double(4)" optype="continuous" dataType="double">
				<FieldRef field="4"/>
			</DerivedField>
			<DerivedField name="double(212)" optype="continuous" dataType="double">
				<FieldRef field="212"/>
			</DerivedField>
			<DerivedField name="double(161)" optype="continuous" dataType="double">
				<FieldRef field="161"/>
			</DerivedField>
			<DerivedField name="double(87)" optype="continuous" dataType="double">
				<FieldRef field="87"/>
			</DerivedField>
			<DerivedField name="double(53)" optype="continuous" dataType="double">
				<FieldRef field="53"/>
			</DerivedField>
			<DerivedField name="double(91)" optype="continuous" dataType="double">
				<FieldRef field="91"/>
			</DerivedField>
			<DerivedField name="double(93)" optype="continuous" dataType="double">
				<FieldRef field="93"/>
			</DerivedField>
			<DerivedField name="double(68)" optype="continuous" dataType="double">
				<FieldRef field="68"/>
			</DerivedField>
			<DerivedField name="double(52)" optype="continuous" dataType="double">
				<FieldRef field="52"/>
			</DerivedField>
			<DerivedField name="double(49)" optype="continuous" dataType="double">
				<FieldRef field="49"/>
			</DerivedField>
			<DerivedField name="double(104)" optype="continuous" dataType="double">
				<FieldRef field="104"/>
			</DerivedField>
			<DerivedField name="double(84)" optype="continuous" dataType="double">
				<FieldRef field="84"/>
			</DerivedField>
			<DerivedField name="double(205)" optype="continuous" dataType="double">
				<FieldRef field="205"/>
			</DerivedField>
			<DerivedField name="double(72)" optype="continuous" dataType="double">
				<FieldRef field="72"/>
			</DerivedField>
			<DerivedField name="double(113)" optype="continuous" dataType="double">
				<FieldRef field="113"/>
			</DerivedField>
			<DerivedField name="double(230)" optype="continuous" dataType="double">
				<FieldRef field="230"/>
			</DerivedField>
			<DerivedField name="double(71)" optype="continuous" dataType="double">
				<FieldRef field="71"/>
			</DerivedField>
			<DerivedField name="double(48)" optype="continuous" dataType="double">
				<FieldRef field="48"/>
			</DerivedField>
			<DerivedField name="double(169)" optype="continuous" dataType="double">
				<FieldRef field="169"/>
			</DerivedField>
			<DerivedField name="double(38)" optype="continuous" dataType="double">
				<FieldRef field="38"/>
			</DerivedField>
			<DerivedField name="double(18)" optype="continuous" dataType="double">
				<FieldRef field="18"/>
			</DerivedField>
			<DerivedField name="double(20)" optype="continuous" dataType="double">
				<FieldRef field="20"/>
			</DerivedField>
			<DerivedField name="double(182)" optype="continuous" dataType="double">
				<FieldRef field="182"/>
			</DerivedField>
			<DerivedField name="double(156)" optype="continuous" dataType="double">
				<FieldRef field="156"/>
			</DerivedField>
			<DerivedField name="double(144)" optype="continuous" dataType="double">
				<FieldRef field="144"/>
			</DerivedField>
			<DerivedField name="double(157)" optype="continuous" dataType="double">
				<FieldRef field="157"/>
			</DerivedField>
			<DerivedField name="double(165)" optype="continuous" dataType="double">
				<FieldRef field="165"/>
			</DerivedField>
			<DerivedField name="double(106)" optype="continuous" dataType="double">
				<FieldRef field="106"/>
			</DerivedField>
			<DerivedField name="double(78)" optype="continuous" dataType="double">
				<FieldRef field="78"/>
			</DerivedField>
			<DerivedField name="double(160)" optype="continuous" dataType="double">
				<FieldRef field="160"/>
			</DerivedField>
			<DerivedField name="double(37)" optype="continuous" dataType="double">
				<FieldRef field="37"/>
			</DerivedField>
			<DerivedField name="double(50)" optype="continuous" dataType="double">
				<FieldRef field="50"/>
			</DerivedField>
			<DerivedField name="double(170)" optype="continuous" dataType="double">
				<FieldRef field="170"/>
			</DerivedField>
			<DerivedField name="double(204)" optype="continuous" dataType="double">
				<FieldRef field="204"/>
			</DerivedField>
			<DerivedField name="double(175)" optype="continuous" dataType="double">
				<FieldRef field="175"/>
			</DerivedField>
			<DerivedField name="double(167)" optype="continuous" dataType="double">
				<FieldRef field="167"/>
			</DerivedField>
			<DerivedField name="double(85)" optype="continuous" dataType="double">
				<FieldRef field="85"/>
			</DerivedField>
			<DerivedField name="double(179)" optype="continuous" dataType="double">
				<FieldRef field="179"/>
			</DerivedField>
			<DerivedField name="double(215)" optype="continuous" dataType="double">
				<FieldRef field="215"/>
			</DerivedField>
			<DerivedField name="double(143)" optype="continuous" dataType="double">
				<FieldRef field="143"/>
			</DerivedField>
			<DerivedField name="double(213)" optype="continuous" dataType="double">
				<FieldRef field="213"/>
			</DerivedField>
			<DerivedField name="double(135)" optype="continuous" dataType="double">
				<FieldRef field="135"/>
			</DerivedField>
			<DerivedField name="double(63)" optype="continuous" dataType="double">
				<FieldRef field="63"/>
			</DerivedField>
			<DerivedField name="double(125)" optype="continuous" dataType="double">
				<FieldRef field="125"/>
			</DerivedField>
			<DerivedField name="double(73)" optype="continuous" dataType="double">
				<FieldRef field="73"/>
			</DerivedField>
			<DerivedField name="double(97)" optype="continuous" dataType="double">
				<FieldRef field="97"/>
			</DerivedField>
			<DerivedField name="double(174)" optype="continuous" dataType="double">
				<FieldRef field="174"/>
			</DerivedField>
			<DerivedField name="double(226)" optype="continuous" dataType="double">
				<FieldRef field="226"/>
			</DerivedField>
			<DerivedField name="double(136)" optype="continuous" dataType="double">
				<FieldRef field="136"/>
			</DerivedField>
			<DerivedField name="double(99)" optype="continuous" dataType="double">
				<FieldRef field="99"/>
			</DerivedField>
			<DerivedField name="double(217)" optype="continuous" dataType="double">
				<FieldRef field="217"/>
			</DerivedField>
			<DerivedField name="double(112)" optype="continuous" dataType="double">
				<FieldRef field="112"/>
			</DerivedField>
			<DerivedField name="double(176)" optype="continuous" dataType="double">
				<FieldRef field="176"/>
			</DerivedField>
			<DerivedField name="double(67)" optype="continuous" dataType="double">
				<FieldRef field="67"/>
			</DerivedField>
			<DerivedField name="double(121)" optype="continuous" dataType="double">
				<FieldRef field="121"/>
			</DerivedField>
			<DerivedField name="double(90)" optype="continuous" dataType="double">
				<FieldRef field="90"/>
			</DerivedField>
			<DerivedField name="double(158)" optype="continuous" dataType="double">
				<FieldRef field="158"/>
			</DerivedField>
			<DerivedField name="double(234)" optype="continuous" dataType="double">
				<FieldRef field="234"/>
			</DerivedField>
			<DerivedField name="double(95)" optype="continuous" dataType="double">
				<FieldRef field="95"/>
			</DerivedField>
			<DerivedField name="double(100)" optype="continuous" dataType="double">
				<FieldRef field="100"/>
			</DerivedField>
			<DerivedField name="double(60)" optype="continuous" dataType="double">
				<FieldRef field="60"/>
			</DerivedField>
			<DerivedField name="double(122)" optype="continuous" dataType="double">
				<FieldRef field="122"/>
			</DerivedField>
			<DerivedField name="double(77)" optype="continuous" dataType="double">
				<FieldRef field="77"/>
			</DerivedField>
			<DerivedField name="double(36)" optype="continuous" dataType="double">
				<FieldRef field="36"/>
			</DerivedField>
			<DerivedField name="double(132)" optype="continuous" dataType="double">
				<FieldRef field="132"/>
			</DerivedField>
			<DerivedField name="double(152)" optype="continuous" dataType="double">
				<FieldRef field="152"/>
			</DerivedField>
			<DerivedField name="double(200)" optype="continuous" dataType="double">
				<FieldRef field="200"/>
			</DerivedField>
			<DerivedField name="double(222)" optype="continuous" dataType="double">
				<FieldRef field="222"/>
			</DerivedField>
			<DerivedField name="double(123)" optype="continuous" dataType="double">
				<FieldRef field="123"/>
			</DerivedField>
			<DerivedField name="double(235)" optype="continuous" dataType="double">
				<FieldRef field="235"/>
			</DerivedField>
			<DerivedField name="double(227)" optype="continuous" dataType="double">
				<FieldRef field="227"/>
			</DerivedField>
			<DerivedField name="double(163)" optype="continuous" dataType="double">
				<FieldRef field="163"/>
			</DerivedField>
			<DerivedField name="double(74)" optype="continuous" dataType="double">
				<FieldRef field="74"/>
			</DerivedField>
			<DerivedField name="double(154)" optype="continuous" dataType="double">
				<FieldRef field="154"/>
			</DerivedField>
			<DerivedField name="double(129)" optype="continuous" dataType="double">
				<FieldRef field="129"/>
			</DerivedField>
			<DerivedField name="double(221)" optype="continuous" dataType="double">
				<FieldRef field="221"/>
			</DerivedField>
			<DerivedField name="double(120)" optype="continuous" dataType="double">
				<FieldRef field="120"/>
			</DerivedField>
			<DerivedField name="double(214)" optype="continuous" dataType="double">
				<FieldRef field="214"/>
			</DerivedField>
			<DerivedField name="double(51)" optype="continuous" dataType="double">
				<FieldRef field="51"/>
			</DerivedField>
			<DerivedField name="double(232)" optype="continuous" dataType="double">
				<FieldRef field="232"/>
			</DerivedField>
			<DerivedField name="double(107)" optype="continuous" dataType="double">
				<FieldRef field="107"/>
			</DerivedField>
			<DerivedField name="double(102)" optype="continuous" dataType="double">
				<FieldRef field="102"/>
			</DerivedField>
			<DerivedField name="double(128)" optype="continuous" dataType="double">
				<FieldRef field="128"/>
			</DerivedField>
			<DerivedField name="double(109)" optype="continuous" dataType="double">
				<FieldRef field="109"/>
			</DerivedField>
			<DerivedField name="double(70)" optype="continuous" dataType="double">
				<FieldRef field="70"/>
			</DerivedField>
			<DerivedField name="double(148)" optype="continuous" dataType="double">
				<FieldRef field="148"/>
			</DerivedField>
			<DerivedField name="double(76)" optype="continuous" dataType="double">
				<FieldRef field="76"/>
			</DerivedField>
			<DerivedField name="double(171)" optype="continuous" dataType="double">
				<FieldRef field="171"/>
			</DerivedField>
			<DerivedField name="double(184)" optype="continuous" dataType="double">
				<FieldRef field="184"/>
			</DerivedField>
			<DerivedField name="double(133)" optype="continuous" dataType="double">
				<FieldRef field="133"/>
			</DerivedField>
			<DerivedField name="double(139)" optype="continuous" dataType="double">
				<FieldRef field="139"/>
			</DerivedField>
			<DerivedField name="double(141)" optype="continuous" dataType="double">
				<FieldRef field="141"/>
			</DerivedField>
			<DerivedField name="double(103)" optype="continuous" dataType="double">
				<FieldRef field="103"/>
			</DerivedField>
			<DerivedField name="double(124)" optype="continuous" dataType="double">
				<FieldRef field="124"/>
			</DerivedField>
			<DerivedField name="double(203)" optype="continuous" dataType="double">
				<FieldRef field="203"/>
			</DerivedField>
			<DerivedField name="double(65)" optype="continuous" dataType="double">
				<FieldRef field="65"/>
			</DerivedField>
			<DerivedField name="double(183)" optype="continuous" dataType="double">
				<FieldRef field="183"/>
			</DerivedField>
			<DerivedField name="double(96)" optype="continuous" dataType="double">
				<FieldRef field="96"/>
			</DerivedField>
			<DerivedField name="double(118)" optype="continuous" dataType="double">
				<FieldRef field="118"/>
			</DerivedField>
			<DerivedField name="double(185)" optype="continuous" dataType="double">
				<FieldRef field="185"/>
			</DerivedField>
			<DerivedField name="double(181)" optype="continuous" dataType="double">
				<FieldRef field="181"/>
			</DerivedField>
			<DerivedField name="double(137)" optype="continuous" dataType="double">
				<FieldRef field="137"/>
			</DerivedField>
			<DerivedField name="double(151)" optype="continuous" dataType="double">
				<FieldRef field="151"/>
			</DerivedField>
			<DerivedField name="double(193)" optype="continuous" dataType="double">
				<FieldRef field="193"/>
			</DerivedField>
			<DerivedField name="double(202)" optype="continuous" dataType="double">
				<FieldRef field="202"/>
			</DerivedField>
			<DerivedField name="double(207)" optype="continuous" dataType="double">
				<FieldRef field="207"/>
			</DerivedField>
			<DerivedField name="double(206)" optype="continuous" dataType="double">
				<FieldRef field="206"/>
			</DerivedField>
			<DerivedField name="double(146)" optype="continuous" dataType="double">
				<FieldRef field="146"/>
			</DerivedField>
			<DerivedField name="double(142)" optype="continuous" dataType="double">
				<FieldRef field="142"/>
			</DerivedField>
			<DerivedField name="double(208)" optype="continuous" dataType="double">
				<FieldRef field="208"/>
			</DerivedField>
			<DerivedField name="double(231)" optype="continuous" dataType="double">
				<FieldRef field="231"/>
			</DerivedField>
			<DerivedField name="double(145)" optype="continuous" dataType="double">
				<FieldRef field="145"/>
			</DerivedField>
			<DerivedField name="double(186)" optype="continuous" dataType="double">
				<FieldRef field="186"/>
			</DerivedField>
			<DerivedField name="double(219)" optype="continuous" dataType="double">
				<FieldRef field="219"/>
			</DerivedField>
			<DerivedField name="double(189)" optype="continuous" dataType="double">
				<FieldRef field="189"/>
			</DerivedField>
			<DerivedField name="double(218)" optype="continuous" dataType="double">
				<FieldRef field="218"/>
			</DerivedField>
			<DerivedField name="double(194)" optype="continuous" dataType="double">
				<FieldRef field="194"/>
			</DerivedField>
		</LocalTransformations>
		<Segmentation multipleModelMethod="average" missingPredictionTreatment="returnMissing">
			<Segment id="1">
				<True/>
				<TreeModel functionName="classification" missingValueStrategy="nullPrediction">
					<MiningSchema>
						<MiningField name="double(134)"/>
						<MiningField name="double(5)"/>
						<MiningField name="double(126)"/>
						<MiningField name="double(40)"/>
						<MiningField name="double(1)"/>
						<MiningField name="double(12)"/>
						<MiningField name="double(79)"/>
						<MiningField name="double(83)"/>
						<MiningField name="double(16)"/>
						<MiningField name="double(10)"/>
						<MiningField name="double(21)"/>
						<MiningField name="double(59)"/>
						<MiningField name="double(101)"/>
						<MiningField name="double(13)"/>
						<MiningField name="double(32)"/>
						<MiningField name="double(47)"/>
						<MiningField name="double(23)"/>
						<MiningField name="double(17)"/>
						<MiningField name="double(39)"/>
						<MiningField name="double(86)"/>
						<MiningField name="double(34)"/>
						<MiningField name="double(7)"/>
						<MiningField name="double(24)"/>
						<MiningField name="double(159)"/>
						<MiningField name="double(29)"/>
						<MiningField name="double(89)"/>
						<MiningField name="double(46)"/>
						<MiningField name="double(28)"/>
						<MiningField name="double(131)"/>
						<MiningField name="double(27)"/>
						<MiningField name="double(57)"/>
						<MiningField name="double(153)"/>
						<MiningField name="double(42)"/>
						<MiningField name="double(31)"/>
						<MiningField name="double(105)"/>
						<MiningField name="double(14)"/>
						<MiningField name="double(2)"/>
						<MiningField name="double(25)"/>
						<MiningField name="double(88)"/>
						<MiningField name="double(43)"/>
						<MiningField name="double(11)"/>
						<MiningField name="double(164)"/>
						<MiningField name="double(64)"/>
						<MiningField name="double(0)"/>
						<MiningField name="double(81)"/>
						<MiningField name="double(108)"/>
						<MiningField name="double(15)"/>
						<MiningField name="double(82)"/>
						<MiningField name="double(22)"/>
						<MiningField name="double(19)"/>
						<MiningField name="double(147)"/>
						<MiningField name="double(127)"/>
						<MiningField name="double(149)"/>
						<MiningField name="double(116)"/>
						<MiningField name="double(155)"/>
						<MiningField name="double(114)"/>
						<MiningField name="double(187)"/>
						<MiningField name="double(162)"/>
						<MiningField name="double(168)"/>
					</MiningSchema>
					<Node>
						<True/>
						<Node>
							<SimplePredicate field="double(134)" operator="lessOrEqual" value="1.465000033378601"/>
							<Node>
								<SimplePredicate field="double(5)" operator="lessOrEqual" value="76.54999923706055"/>
								<Node>
									<SimplePredicate field="double(126)" operator="lessOrEqual" value="7.5"/>
									<Node>
										<SimplePredicate field="double(40)" operator="lessOrEqual" value="3.5"/>
										<Node>
											<SimplePredicate field="double(1)" operator="lessOrEqual" value="1958.5"/>
											<Node>
												<SimplePredicate field="double(12)" operator="lessOrEqual" value="1.5"/>
												<Node>
													<SimplePredicate field="double(79)" operator="lessOrEqual" value="2.5"/>
													<Node>
														<SimplePredicate field="double(83)" operator="lessOrEqual" value="-1.5"/>
														<Node score="0" recordCount="3">
															<SimplePredicate field="double(16)" operator="lessOrEqual" value="2.5"/>
															<ScoreDistribution value="0" recordCount="3"/>
															<ScoreDistribution value="1" recordCount="0"/>
														</Node>
														<Node score="1" recordCount="3">
															<True/>
															<ScoreDistribution value="0" recordCount="0"/>
															<ScoreDistribution value="1" recordCount="3"/>
														</Node>
													</Node>
													<Node score="0" recordCount="3">
														<True/>
														<ScoreDistribution value="0" recordCount="3"/>
														<ScoreDistribution value="1" recordCount="0"/>
													</Node>
												</Node>
												<Node score="1" recordCount="3">
													<True/>
													<ScoreDistribution value="0" recordCount="0"/>
													<ScoreDistribution value="1" recordCount="3"/>
												</Node>
											</Node>
											<Node>
												<SimplePredicate field="double(10)" operator="lessOrEqual" value="1.5"/>
												<Node score="1" recordCount="2">
													<SimplePredicate field="double(21)" operator="lessOrEqual" value="2.0"/>
													<ScoreDistribution value="0" recordCount="0"/>
													<ScoreDistribution value="1" recordCount="2"/>
												</Node>
												<Node score="0" recordCount="3">
													<SimplePredicate field="double(59)" operator="lessOrEqual" value="0.5"/>
													<ScoreDistribution value="0" recordCount="3"/>
													<ScoreDistribution value="1" recordCount="0"/>
												</Node>
												<Node score="1" recordCount="1">
													<SimplePredicate field="double(5)" operator="lessOrEqual" value="63.5"/>
													<ScoreDistribution value="0" recordCount="0"/>
													<ScoreDistribution value="1" recordCount="1"/>
												</Node>
												<Node score="0" recordCount="1">
													<True/>
													<ScoreDistribution value="0" recordCount="1"/>
													<ScoreDistribution value="1" recordCount="0"/>
												</Node>
											</Node>
											<Node>
												<SimplePredicate field="double(101)" operator="lessOrEqual" value="-1.5"/>
												<Node>
													<SimplePredicate field="double(13)" operator="lessOrEqual" value="2.5"/>
													<Node>
														<SimplePredicate field="double(32)" operator="lessOrEqual" value="2.0"/>
														<Node>
															<SimplePredicate field="double(47)" operator="lessOrEqual" value="2.0"/>
															<Node score="0" recordCount="1">
																<SimplePredicate field="double(5)" operator="lessOrEqual" value="65.5"/>
																<ScoreDistribution value="0" recordCount="1"/>
																<ScoreDistribution value="1" recordCount="0"/>
															</Node>
															<Node score="1" recordCount="1">
																<True/>
																<ScoreDistribution value="0" recordCount="0"/>
																<ScoreDistribution value="1" recordCount="1"/>
															</Node>
														</Node>
														<Node score="0" recordCount="7">
															<True/>
															<ScoreDistribution value="0" recordCount="7"/>
															<ScoreDistribution value="1" recordCount="0"/>
														</Node>
													</Node>
													<Node score="1" recordCount="1">
														<True/>
														<ScoreDistribution value="0" recordCount="0"/>
														<ScoreDistribution value="1" recordCount="1"/>
													</Node>
												</Node>
												<Node>
													<SimplePredicate field="double(23)" operator="lessOrEqual" value="3.5"/>
													<Node>
														<SimplePredicate field="double(10)" operator="lessOrEqual" value="2.5"/>
														<Node>
															<SimplePredicate field="double(17)" operator="lessOrEqual" value="1.5"/>
															<Node score="0" recordCount="4">
																<SimplePredicate field="double(39)" operator="lessOrEqual" value="3.0"/>
																<ScoreDistribution value="0" recordCount="4"/>
																<ScoreDistribution value="1" recordCount="0"/>
															</Node>
															<Node score="1" recordCount="1">
																<True/>
																<ScoreDistribution value="0" recordCount="0"/>
																<ScoreDistribution value="1" recordCount="1"/>
															</Node>
														</Node>
														<Node score="0" recordCount="37">
															<True/>
															<ScoreDistribution value="0" recordCount="37"/>
															<ScoreDistribution value="1" recordCount="0"/>
														</Node>
													</Node>
													<Node score="1" recordCount="1">
														<True/>
														<ScoreDistribution value="0" recordCount="0"/>
														<ScoreDistribution value="1" recordCount="1"/>
													</Node>
												</Node>
												<Node score="0" recordCount="49">
													<True/>
													<ScoreDistribution value="0" recordCount="49"/>
													<ScoreDistribution value="1" recordCount="0"/>
												</Node>
											</Node>
											<Node score="1" recordCount="2">
												<SimplePredicate field="double(86)" operator="lessOrEqual" value="-1.5"/>
												<ScoreDistribution value="0" recordCount="0"/>
												<ScoreDistribution value="1" recordCount="2"/>
											</Node>
											<Node score="0" recordCount="1">
												<True/>
												<ScoreDistribution value="0" recordCount="1"/>
												<ScoreDistribution value="1" recordCount="0"/>
											</Node>
										</Node>
										<Node>
											<SimplePredicate field="double(34)" operator="lessOrEqual" value="20.5"/>
											<Node>
												<SimplePredicate field="double(13)" operator="lessOrEqual" value="2.5"/>
												<Node>
													<SimplePredicate field="double(79)" operator="lessOrEqual" value="1.5"/>
													<Node>
														<SimplePredicate field="double(23)" operator="lessOrEqual" value="3.5"/>
														<Node score="1" recordCount="1">
															<SimplePredicate field="double(7)" operator="lessOrEqual" value="1.5"/>
															<ScoreDistribution value="0" recordCount="0"/>
															<ScoreDistribution value="1" recordCount="1"/>
														</Node>
														<Node score="0" recordCount="41">
															<True/>
															<ScoreDistribution value="0" recordCount="41"/>
															<ScoreDistribution value="1" recordCount="0"/>
														</Node>
													</Node>
													<Node score="0" recordCount="9">
														<SimplePredicate field="double(24)" operator="lessOrEqual" value="2.5"/>
														<ScoreDistribution value="0" recordCount="9"/>
														<ScoreDistribution value="1" recordCount="0"/>
													</Node>
													<Node score="0" recordCount="2">
														<SimplePredicate field="double(13)" operator="lessOrEqual" value="1.5"/>
														<ScoreDistribution value="0" recordCount="2"/>
														<ScoreDistribution value="1" recordCount="0"/>
													</Node>
													<Node score="1" recordCount="4">
														<SimplePredicate field="double(159)" operator="lessOrEqual" value="1.059999942779541"/>
														<ScoreDistribution value="0" recordCount="0"/>
														<ScoreDistribution value="1" recordCount="4"/>
													</Node>
													<Node score="0" recordCount="1">
														<True/>
														<ScoreDistribution value="0" recordCount="1"/>
														<ScoreDistribution value="1" recordCount="0"/>
													</Node>
												</Node>
												<Node score="0" recordCount="75">
													<True/>
													<ScoreDistribution value="0" recordCount="75"/>
													<ScoreDistribution value="1" recordCount="0"/>
												</Node>
											</Node>
											<Node score="0" recordCount="399">
												<True/>
												<ScoreDistribution value="0" recordCount="399"/>
												<ScoreDistribution value="1" recordCount="0"/>
											</Node>
										</Node>
										<Node score="0" recordCount="2">
											<SimplePredicate field="double(29)" operator="lessOrEqual" value="35.5"/>
											<ScoreDistribution value="0" recordCount="2"/>
											<ScoreDistribution value="1" recordCount="0"/>
										</Node>
										<Node score="1" recordCount="3">
											<True/>
											<ScoreDistribution value="0" recordCount="0"/>
											<ScoreDistribution value="1" recordCount="3"/>
										</Node>
									</Node>
									<Node>
										<SimplePredicate field="double(89)" operator="lessOrEqual" value="-1.5"/>
										<Node score="0" recordCount="17">
											<SimplePredicate field="double(46)" operator="lessOrEqual" value="3.5"/>
											<ScoreDistribution value="0" recordCount="17"/>
											<ScoreDistribution value="1" recordCount="0"/>
										</Node>
										<Node score="1" recordCount="5">
											<True/>
											<ScoreDistribution value="0" recordCount="0"/>
											<ScoreDistribution value="1" recordCount="5"/>
										</Node>
									</Node>
									<Node score="1" recordCount="3">
										<True/>
										<ScoreDistribution value="0" recordCount="0"/>
										<ScoreDistribution value="1" recordCount="3"/>
									</Node>
								</Node>
								<Node score="1" recordCount="10">
									<True/>
									<ScoreDistribution value="0" recordCount="0"/>
									<ScoreDistribution value="1" recordCount="10"/>
								</Node>
							</Node>
							<Node>
								<SimplePredicate field="double(28)" operator="lessOrEqual" value="18.0"/>
								<Node>
									<SimplePredicate field="double(131)" operator="lessOrEqual" value="56.5"/>
									<Node>
										<SimplePredicate field="double(27)" operator="lessOrEqual" value="-1.5"/>
										<Node>
											<SimplePredicate field="double(57)" operator="lessOrEqual" value="0.5"/>
											<Node>
												<SimplePredicate field="double(153)" operator="lessOrEqual" value="0.7999999821186066"/>
												<Node>
													<SimplePredicate field="double(42)" operator="lessOrEqual" value="1.5"/>
													<Node score="0" recordCount="2">
														<SimplePredicate field="double(40)" operator="lessOrEqual" value="3.0"/>
														<ScoreDistribution value="0" recordCount="2"/>
														<ScoreDistribution value="1" recordCount="0"/>
													</Node>
													<Node score="1" recordCount="2">
														<True/>
														<ScoreDistribution value="0" recordCount="0"/>
														<ScoreDistribution value="1" recordCount="2"/>
													</Node>
												</Node>
												<Node>
													<SimplePredicate field="double(31)" operator="lessOrEqual" value="17.5"/>
													<Node>
														<SimplePredicate field="double(10)" operator="lessOrEqual" value="1.5"/>
														<Node>
															<SimplePredicate field="double(57)" operator="lessOrEqual" value="-1.5"/>
															<Node score="1" recordCount="1">
																<SimplePredicate field="double(40)" operator="lessOrEqual" value="1.5"/>
																<ScoreDistribution value="0" recordCount="0"/>
																<ScoreDistribution value="1" recordCount="1"/>
															</Node>
															<Node score="0" recordCount="2">
																<True/>
																<ScoreDistribution value="0" recordCount="2"/>
																<ScoreDistribution value="1" recordCount="0"/>
															</Node>
														</Node>
														<Node score="1" recordCount="1">
															<True/>
															<ScoreDistribution value="0" recordCount="0"/>
															<ScoreDistribution value="1" recordCount="1"/>
														</Node>
													</Node>
													<Node>
														<SimplePredicate field="double(105)" operator="lessOrEqual" value="1.5"/>
														<Node>
															<SimplePredicate field="double(14)" operator="lessOrEqual" value="2.5"/>
															<Node>
																<SimplePredicate field="double(2)" operator="lessOrEqual" value="73.5"/>
																<Node>
																	<SimplePredicate field="double(42)" operator="lessOrEqual" value="3.5"/>
																	<Node score="1" recordCount="1">
																		<SimplePredicate field="double(16)" operator="lessOrEqual" value="1.5"/>
																		<ScoreDistribution value="0" recordCount="0"/>
																		<ScoreDistribution value="1" recordCount="1"/>
																	</Node>
																	<Node score="0" recordCount="5">
																		<True/>
																		<ScoreDistribution value="0" recordCount="5"/>
																		<ScoreDistribution value="1" recordCount="0"/>
																	</Node>
																</Node>
																<Node score="0" recordCount="38">
																	<SimplePredicate field="double(25)" operator="lessOrEqual" value="2.0"/>
																	<ScoreDistribution value="0" recordCount="38"/>
																	<ScoreDistribution value="1" recordCount="0"/>
																</Node>
																<Node score="1" recordCount="1">
																	<SimplePredicate field="double(16)" operator="lessOrEqual" value="1.5"/>
																	<ScoreDistribution value="0" recordCount="0"/>
																	<ScoreDistribution value="1" recordCount="1"/>
																</Node>
																<Node score="0" recordCount="12">
																	<True/>
																	<ScoreDistribution value="0" recordCount="12"/>
																	<ScoreDistribution value="1" recordCount="0"/>
																</Node>
															</Node>
															<Node score="1" recordCount="1">
																<True/>
																<ScoreDistribution value="0" recordCount="0"/>
																<ScoreDistribution value="1" recordCount="1"/>
															</Node>
														</Node>
														<Node score="0" recordCount="52">
															<True/>
															<ScoreDistribution value="0" recordCount="52"/>
															<ScoreDistribution value="1" recordCount="0"/>
														</Node>
													</Node>
													<Node score="0" recordCount="6">
														<SimplePredicate field="double(88)" operator="lessOrEqual" value="-1.5"/>
														<ScoreDistribution value="0" recordCount="6"/>
														<ScoreDistribution value="1" recordCount="0"/>
													</Node>
													<Node score="1" recordCount="3">
														<SimplePredicate field="double(43)" operator="lessOrEqual" value="1.5"/>
														<ScoreDistribution value="0" recordCount="0"/>
														<ScoreDistribution value="1" recordCount="3"/>
													</Node>
													<Node score="0" recordCount="2">
														<True/>
														<ScoreDistribution value="0" recordCount="2"/>
														<ScoreDistribution value="1" recordCount="0"/>
													</Node>
												</Node>
												<Node>
													<SimplePredicate field="double(11)" operator="lessOrEqual" value="3.5"/>
													<Node>
														<SimplePredicate field="double(164)" operator="lessOrEqual" value="10.899999618530273"/>
														<Node>
															<SimplePredicate field="double(14)" operator="lessOrEqual" value="1.5"/>
															<Node>
																<SimplePredicate field="double(64)" operator="lessOrEqual" value="1.5"/>
																<Node score="1" recordCount="2">
																	<SimplePredicate field="double(0)" operator="lessOrEqual" value="1.5"/>
																	<ScoreDistribution value="0" recordCount="0"/>
																	<ScoreDistribution value="1" recordCount="2"/>
																</Node>
																<Node score="0" recordCount="1">
																	<True/>
																	<ScoreDistribution value="0" recordCount="1"/>
																	<ScoreDistribution value="1" recordCount="0"/>
																</Node>
															</Node>
															<Node score="1" recordCount="7">
																<True/>
																<ScoreDistribution value="0" recordCount="0"/>
																<ScoreDistribution value="1" recordCount="7"/>
															</Node>
														</Node>
														<Node score="0" recordCount="7">
															<True/>
															<ScoreDistribution value="0" recordCount="7"/>
															<ScoreDistribution value="1" recordCount="0"/>
														</Node>
													</Node>
													<Node score="0" recordCount="3">
														<True/>
														<ScoreDistribution value="0" recordCount="3"/>
														<ScoreDistribution value="1" recordCount="0"/>
													</Node>
												</Node>
												<Node score="0" recordCount="10">
													<SimplePredicate field="double(46)" operator="lessOrEqual" value="2.5"/>
													<ScoreDistribution value="0" recordCount="10"/>
													<ScoreDistribution value="1" recordCount="0"/>
												</Node>
												<Node>
													<SimplePredicate field="double(81)" operator="lessOrEqual" value="-1.5"/>
													<Node score="0" recordCount="4">
														<SimplePredicate field="double(108)" operator="lessOrEqual" value="2.5"/>
														<ScoreDistribution value="0" recordCount="4"/>
														<ScoreDistribution value="1" recordCount="0"/>
													</Node>
													<Node score="1" recordCount="1">
														<True/>
														<ScoreDistribution value="0" recordCount="0"/>
														<ScoreDistribution value="1" recordCount="1"/>
													</Node>
												</Node>
												<Node score="0" recordCount="6">
													<True/>
													<ScoreDistribution value="0" recordCount="6"/>
													<ScoreDistribution value="1" recordCount="0"/>
												</Node>
											</Node>
											<Node score="1" recordCount="3">
												<True/>
												<ScoreDistribution value="0" recordCount="0"/>
												<ScoreDistribution value="1" recordCount="3"/>
											</Node>
										</Node>
										<Node score="1" recordCount="8">
											<True/>
											<ScoreDistribution value="0" recordCount="0"/>
											<ScoreDistribution value="1" recordCount="8"/>
										</Node>
									</Node>
									<Node>
										<SimplePredicate field="double(15)" operator="lessOrEqual" value="2.5"/>
										<Node>
											<SimplePredicate field="double(13)" operator="lessOrEqual" value="4.5"/>
											<Node score="1" recordCount="14">
												<SimplePredicate field="double(47)" operator="lessOrEqual" value="2.5"/>
												<ScoreDistribution value="0" recordCount="0"/>
												<ScoreDistribution value="1" recordCount="14"/>
											</Node>
											<Node score="0" recordCount="4">
												<True/>
												<ScoreDistribution value="0" recordCount="4"/>
												<ScoreDistribution value="1" recordCount="0"/>
											</Node>
										</Node>
										<Node score="0" recordCount="1">
											<True/>
											<ScoreDistribution value="0" recordCount="1"/>
											<ScoreDistribution value="1" recordCount="0"/>
										</Node>
									</Node>
									<Node score="0" recordCount="2">
										<True/>
										<ScoreDistribution value="0" recordCount="2"/>
										<ScoreDistribution value="1" recordCount="0"/>
									</Node>
								</Node>
								<Node score="0" recordCount="109">
									<True/>
									<ScoreDistribution value="0" recordCount="109"/>
									<ScoreDistribution value="1" recordCount="0"/>
								</Node>
							</Node>
							<Node>
								<SimplePredicate field="double(27)" operator="lessOrEqual" value="-1.5"/>
								<Node>
									<SimplePredicate field="double(5)" operator="lessOrEqual" value="79.0"/>
									<Node score="0" recordCount="4">
										<SimplePredicate field="double(82)" operator="lessOrEqual" value="-1.5"/>
										<ScoreDistribution value="0" recordCount="4"/>
										<ScoreDistribution value="1" recordCount="0"/>
									</Node>
									<Node score="1" recordCount="1">
										<True/>
										<ScoreDistribution value="0" recordCount="0"/>
										<ScoreDistribution value="1" recordCount="1"/>
									</Node>
								</Node>
								<Node score="0" recordCount="43">
									<SimplePredicate field="double(22)" operator="lessOrEqual" value="3.5"/>
									<ScoreDistribution value="0" recordCount="43"/>
									<ScoreDistribution value="1" recordCount="0"/>
								</Node>
								<Node score="0" recordCount="1">
									<SimplePredicate field="double(19)" operator="lessOrEqual" value="1.5"/>
									<ScoreDistribution value="0" recordCount="1"/>
									<ScoreDistribution value="1" recordCount="0"/>
								</Node>
								<Node score="1" recordCount="1">
									<True/>
									<ScoreDistribution value="0" recordCount="0"/>
									<ScoreDistribution value="1" recordCount="1"/>
								</Node>
							</Node>
							<Node>
								<SimplePredicate field="double(147)" operator="lessOrEqual" value="1.9600000381469727"/>
								<Node>
									<SimplePredicate field="double(11)" operator="lessOrEqual" value="3.5"/>
									<Node score="1" recordCount="6">
										<SimplePredicate field="double(15)" operator="lessOrEqual" value="2.0"/>
										<ScoreDistribution value="0" recordCount="0"/>
										<ScoreDistribution value="1" recordCount="6"/>
									</Node>
									<Node score="0" recordCount="2">
										<True/>
										<ScoreDistribution value="0" recordCount="2"/>
										<ScoreDistribution value="1" recordCount="0"/>
									</Node>
								</Node>
								<Node score="1" recordCount="29">
									<True/>
									<ScoreDistribution value="0" recordCount="0"/>
									<ScoreDistribution value="1" recordCount="29"/>
								</Node>
							</Node>
							<Node score="0" recordCount="9">
								<SimplePredicate field="double(127)" operator="lessOrEqual" value="2.950000047683716"/>
								<ScoreDistribution value="0" recordCount="9"/>
								<ScoreDistribution value="1" recordCount="0"/>
							</Node>
							<Node score="1" recordCount="4">
								<True/>
								<ScoreDistribution value="0" recordCount="0"/>
								<ScoreDistribution value="1" recordCount="4"/>
							</Node>
						</Node>
						<Node>
							<SimplePredicate field="double(149)" operator="lessOrEqual" value="1.4049999713897705"/>
							<Node>
								<SimplePredicate field="double(116)" operator="lessOrEqual" value="48.55000114440918"/>
								<Node>
									<SimplePredicate field="double(155)" operator="lessOrEqual" value="11.549999713897705"/>
									<Node score="1" recordCount="347">
										<SimplePredicate field="double(114)" operator="lessOrEqual" value="13.5"/>
										<ScoreDistribution value="0" recordCount="0"/>
										<ScoreDistribution value="1" recordCount="347"/>
									</Node>
									<Node score="0" recordCount="1">
										<SimplePredicate field="double(187)" operator="lessOrEqual" value="0.08500000089406967"/>
										<ScoreDistribution value="0" recordCount="1"/>
										<ScoreDistribution value="1" recordCount="0"/>
									</Node>
									<Node score="1" recordCount="14">
										<True/>
										<ScoreDistribution value="0" recordCount="0"/>
										<ScoreDistribution value="1" recordCount="14"/>
									</Node>
								</Node>
								<Node score="0" recordCount="1">
									<True/>
									<ScoreDistribution value="0" recordCount="1"/>
									<ScoreDistribution value="1" recordCount="0"/>
								</Node>
							</Node>
							<Node score="0" recordCount="2">
								<True/>
								<ScoreDistribution value="0" recordCount="2"/>
								<ScoreDistribution value="1" recordCount="0"/>
							</Node>
						</Node>
						<Node score="0" recordCount="18">
							<SimplePredicate field="double(162)" operator="lessOrEqual" value="0.03499999921768904"/>
							<ScoreDistribution value="0" recordCount="18"/>
							<ScoreDistribution value="1" recordCount="0"/>
						</Node>
						<Node score="0" recordCount="1">
							<SimplePredicate field="double(168)" operator="lessOrEqual" value="4.695000171661377"/>
							<ScoreDistribution value="0" recordCount="1"/>
							<ScoreDistribution value="1" recordCount="0"/>
						</Node>
						<Node score="1" recordCount="2">
							<True/>
							<ScoreDistribution value="0" recordCount="0"/>
							<ScoreDistribution value="1" recordCount="2"/>
						</Node>
					</Node>
				</TreeModel>
			</Segment>
			<Segment id="2">
				<True/>
				<TreeModel functionName="classification" missingValueStrategy="nullPrediction">
					<MiningSchema>
						<MiningField name="198"/>
						<MiningField name="double(5)"/>
						<MiningField name="double(126)"/>
						<MiningField name="double(40)"/>
						<MiningField name="double(1)"/>
						<MiningField name="double(12)"/>
						<MiningField name="double(79)"/>
						<MiningField name="double(10)"/>
						<MiningField name="double(21)"/>
						<MiningField name="double(59)"/>
						<MiningField name="double(32)"/>
						<MiningField name="double(47)"/>
						<MiningField name="double(17)"/>
						<MiningField name="double(39)"/>
						<MiningField name="double(7)"/>
						<MiningField name="double(24)"/>
						<MiningField name="double(159)"/>
						<MiningField name="double(29)"/>
						<MiningField name="double(46)"/>
						<MiningField name="double(28)"/>
						<MiningField name="double(153)"/>
						<MiningField name="double(42)"/>
						<MiningField name="double(31)"/>
						<MiningField name="double(14)"/>
						<MiningField name="double(2)"/>
						<MiningField name="double(25)"/>
						<MiningField name="double(43)"/>
						<MiningField name="double(11)"/>
						<MiningField name="double(108)"/>
						<MiningField name="double(15)"/>
						<MiningField name="double(22)"/>
						<MiningField name="double(116)"/>
						<MiningField name="double(140)"/>
						<MiningField name="double(166)"/>
						<MiningField name="double(26)"/>
						<MiningField name="double(41)"/>
						<MiningField name="double(130)"/>
						<MiningField name="double(30)"/>
						<MiningField name="double(75)"/>
						<MiningField name="double(58)"/>
						<MiningField name="double(6)"/>
						<MiningField name="double(92)"/>
						<MiningField name="double(9)"/>
						<MiningField name="double(56)"/>
						<MiningField name="double(8)"/>
						<MiningField name="double(180)"/>
						<MiningField name="double(3)"/>
						<MiningField name="double(61)"/>
						<MiningField name="double(44)"/>
						<MiningField name="double(66)"/>
						<MiningField name="double(115)"/>
						<MiningField name="double(54)"/>
						<MiningField name="double(62)"/>
						<MiningField name="double(80)"/>
						<MiningField name="double(55)"/>
						<MiningField name="double(177)"/>
						<MiningField name="double(35)"/>
						<MiningField name="double(69)"/>
						<MiningField name="double(33)"/>
						<MiningField name="double(172)"/>
						<MiningField name="double(94)"/>
						<MiningField name="double(45)"/>
						<MiningField name="double(98)"/>
						<MiningField name="double(178)"/>
						<MiningField name="double(150)"/>
						<MiningField name="double(173)"/>
						<MiningField name="double(117)"/>
					</MiningSchema>
					<LocalTransformations>
						<DerivedField name="double(198)" optype="continuous" dataType="double">
							<FieldRef field="198"/>
						</DerivedField>
					</LocalTransformations>
					<Node>
						<True/>
						<Node>
							<SimplePredicate field="double(140)" operator="lessOrEqual" value="0.24500000476837158"/>
							<Node>
								<SimplePredicate field="double(7)" operator="lessOrEqual" value="3.5"/>
								<Node>
									<SimplePredicate field="double(166)" operator="lessOrEqual" value="1.75"/>
									<Node>
										<SimplePredicate field="double(26)" operator="lessOrEqual" value="2.5"/>
										<Node>
											<SimplePredicate field="double(126)" operator="lessOrEqual" value="7.5"/>
											<Node>
												<SimplePredicate field="double(7)" operator="lessOrEqual" value="1.5"/>
												<Node>
													<SimplePredicate field="double(39)" operator="lessOrEqual" value="1.5"/>
													<Node score="1" recordCount="3">
														<SimplePredicate field="double(47)" operator="lessOrEqual" value="1.5"/>
														<ScoreDistribution value="0" recordCount="0"/>
														<ScoreDistribution value="1" recordCount="3"/>
													</Node>
													<Node score="0" recordCount="1">
														<SimplePredicate field="double(108)" operator="lessOrEqual" value="1.5"/>
														<ScoreDistribution value="0" recordCount="1"/>
														<ScoreDistribution value="1" recordCount="0"/>
													</Node>
													<Node score="1" recordCount="5">
														<True/>
														<ScoreDistribution value="0" recordCount="0"/>
														<ScoreDistribution value="1" recordCount="5"/>
													</Node>
												</Node>
												<Node>
													<SimplePredicate field="double(41)" operator="lessOrEqual" value="1.5"/>
													<Node>
														<SimplePredicate field="double(130)" operator="lessOrEqual" value="2.2149999141693115"/>
														<Node score="0" recordCount="14">
															<SimplePredicate field="double(43)" operator="lessOrEqual" value="2.5"/>
															<ScoreDistribution value="0" recordCount="14"/>
															<ScoreDistribution value="1" recordCount="0"/>
														</Node>
														<Node score="1" recordCount="1">
															<SimplePredicate field="double(30)" operator="lessOrEqual" value="1.5"/>
															<ScoreDistribution value="0" recordCount="0"/>
															<ScoreDistribution value="1" recordCount="1"/>
														</Node>
														<Node score="0" recordCount="1">
															<True/>
															<ScoreDistribution value="0" recordCount="1"/>
															<ScoreDistribution value="1" recordCount="0"/>
														</Node>
													</Node>
													<Node score="1" recordCount="1">
														<True/>
														<ScoreDistribution value="0" recordCount="0"/>
														<ScoreDistribution value="1" recordCount="1"/>
													</Node>
												</Node>
												<Node score="1" recordCount="1">
													<True/>
													<ScoreDistribution value="0" recordCount="0"/>
													<ScoreDistribution value="1" recordCount="1"/>
												</Node>
											</Node>
											<Node>
												<SimplePredicate field="double(75)" operator="lessOrEqual" value="-1.5"/>
												<Node>
													<SimplePredicate field="double(2)" operator="lessOrEqual" value="66.0"/>
													<Node>
														<SimplePredicate field="double(15)" operator="lessOrEqual" value="1.5"/>
														<Node score="1" recordCount="1">
															<SimplePredicate field="double(42)" operator="lessOrEqual" value="1.5"/>
															<ScoreDistribution value="0" recordCount="0"/>
															<ScoreDistribution value="1" recordCount="1"/>
														</Node>
														<Node>
															<SimplePredicate field="double(28)" operator="lessOrEqual" value="22.5"/>
															<Node>
																<SimplePredicate field="double(47)" operator="lessOrEqual" value="1.5"/>
																<Node>
																	<SimplePredicate field="double(17)" operator="lessOrEqual" value="1.5"/>
																	<Node>
																		<SimplePredicate field="double(1)" operator="lessOrEqual" value="1956.5"/>
																		<Node score="1" recordCount="1">
																			<SimplePredicate field="double(7)" operator="lessOrEqual" value="2.5"/>
																			<ScoreDistribution value="0" recordCount="0"/>
																			<ScoreDistribution value="1" recordCount="1"/>
																		</Node>
																		<Node score="0" recordCount="4">
																			<True/>
																			<ScoreDistribution value="0" recordCount="4"/>
																			<ScoreDistribution value="1" recordCount="0"/>
																		</Node>
																	</Node>
																	<Node score="0" recordCount="18">
																		<True/>
																		<ScoreDistribution value="0" recordCount="18"/>
																		<ScoreDistribution value="1" recordCount="0"/>
																	</Node>
																</Node>
																<Node score="0" recordCount="23">
																	<True/>
																	<ScoreDistribution value="0" recordCount="23"/>
																	<ScoreDistribution value="1" recordCount="0"/>
																</Node>
															</Node>
															<Node>
																<SimplePredicate field="double(10)" operator="lessOrEqual" value="1.5"/>
																<Node>
																	<SimplePredicate field="double(11)" operator="lessOrEqual" value="4.5"/>
																	<Node score="1" recordCount="1">
																		<SimplePredicate field="double(58)" operator="lessOrEqual" value="2.5"/>
																		<ScoreDistribution value="0" recordCount="0"/>
																		<ScoreDistribution value="1" recordCount="1"/>
																	</Node>
																	<Node score="0" recordCount="1">
																		<True/>
																		<ScoreDistribution value="0" recordCount="1"/>
																		<ScoreDistribution value="1" recordCount="0"/>
																	</Node>
																</Node>
																<Node score="1" recordCount="3">
																	<True/>
																	<ScoreDistribution value="0" recordCount="0"/>
																	<ScoreDistribution value="1" recordCount="3"/>
																</Node>
															</Node>
															<Node>
																<SimplePredicate field="double(159)" operator="lessOrEqual" value="0.5950000286102295"/>
																<Node>
																	<SimplePredicate field="double(6)" operator="lessOrEqual" value="2.5"/>
																	<Node>
																		<SimplePredicate field="double(92)" operator="lessOrEqual" value="-1.5"/>
																		<Node>
																			<SimplePredicate field="double(14)" operator="lessOrEqual" value="1.5"/>
																			<Node score="1" recordCount="1">
																				<SimplePredicate field="double(7)" operator="lessOrEqual" value="2.5"/>
																				<ScoreDistribution value="0" recordCount="0"/>
																				<ScoreDistribution value="1" recordCount="1"/>
																			</Node>
																			<Node score="0" recordCount="1">
																				<True/>
																				<ScoreDistribution value="0" recordCount="1"/>
																				<ScoreDistribution value="1" recordCount="0"/>
																			</Node>
																		</Node>
																		<Node score="0" recordCount="1">
																			<SimplePredicate field="double(25)" operator="lessOrEqual" value="1.5"/>
																			<ScoreDistribution value="0" recordCount="1"/>
																			<ScoreDistribution value="1" recordCount="0"/>
																		</Node>
																		<Node score="1" recordCount="3">
																			<True/>
																			<ScoreDistribution value="0" recordCount="0"/>
																			<ScoreDistribution value="1" recordCount="3"/>
																		</Node>
																	</Node>
																	<Node score="0" recordCount="3">
																		<True/>
																		<ScoreDistribution value="0" recordCount="3"/>
																		<ScoreDistribution value="1" recordCount="0"/>
																	</Node>
																</Node>
																<Node score="0" recordCount="21">
																	<SimplePredicate field="double(24)" operator="lessOrEqual" value="3.5"/>
																	<ScoreDistribution value="0" recordCount="21"/>
																	<ScoreDistribution value="1" recordCount="0"/>
																</Node>
																<Node score="1" recordCount="1">
																	<SimplePredicate field="double(21)" operator="lessOrEqual" value="2.5"/>
																	<ScoreDistribution value="0" recordCount="0"/>
																	<ScoreDistribution value="1" recordCount="1"/>
																</Node>
																<Node score="0" recordCount="2">
																	<True/>
																	<ScoreDistribution value="0" recordCount="2"/>
																	<ScoreDistribution value="1" recordCount="0"/>
																</Node>
															</Node>
															<Node score="0" recordCount="11">
																<True/>
																<ScoreDistribution value="0" recordCount="11"/>
																<ScoreDistribution value="1" recordCount="0"/>
															</Node>
														</Node>
														<Node score="1" recordCount="2">
															<True/>
															<ScoreDistribution value="0" recordCount="0"/>
															<ScoreDistribution value="1" recordCount="2"/>
														</Node>
													</Node>
													<Node>
														<SimplePredicate field="double(9)" operator="lessOrEqual" value="8.5"/>
														<Node score="0" recordCount="83">
															<SimplePredicate field="double(56)" operator="lessOrEqual" value="-1.5"/>
															<ScoreDistribution value="0" recordCount="83"/>
															<ScoreDistribution value="1" recordCount="0"/>
														</Node>
														<Node>
															<SimplePredicate field="double(32)" operator="lessOrEqual" value="1.5"/>
															<Node score="0" recordCount="2">
																<SimplePredicate field="double(8)" operator="lessOrEqual" value="1.5"/>
																<ScoreDistribution value="0" recordCount="2"/>
																<ScoreDistribution value="1" recordCount="0"/>
															</Node>
															<Node score="1" recordCount="1">
																<True/>
																<ScoreDistribution value="0" recordCount="0"/>
																<ScoreDistribution value="1" recordCount="1"/>
															</Node>
														</Node>
														<Node score="0" recordCount="6">
															<True/>
															<ScoreDistribution value="0" recordCount="6"/>
															<ScoreDistribution value="1" recordCount="0"/>
														</Node>
													</Node>
													<Node score="0" recordCount="3">
														<SimplePredicate field="double(79)" operator="lessOrEqual" value="2.5"/>
														<ScoreDistribution value="0" recordCount="3"/>
														<ScoreDistribution value="1" recordCount="0"/>
													</Node>
													<Node score="1" recordCount="1">
														<True/>
														<ScoreDistribution value="0" recordCount="0"/>
														<ScoreDistribution value="1" recordCount="1"/>
													</Node>
												</Node>
												<Node>
													<SimplePredicate field="double(180)" operator="lessOrEqual" value="24.600000381469727"/>
													<Node>
														<SimplePredicate field="double(40)" operator="lessOrEqual" value="1.5"/>
														<Node score="0" recordCount="4">
															<SimplePredicate field="double(11)" operator="lessOrEqual" value="3.5"/>
															<ScoreDistribution value="0" recordCount="4"/>
															<ScoreDistribution value="1" recordCount="0"/>
														</Node>
														<Node>
															<SimplePredicate field="double(3)" operator="lessOrEqual" value="153.5"/>
															<Node score="1" recordCount="2">
																<SimplePredicate field="double(17)" operator="lessOrEqual" value="2.5"/>
																<ScoreDistribution value="0" recordCount="0"/>
																<ScoreDistribution value="1" recordCount="2"/>
															</Node>
															<Node score="1" recordCount="1">
																<SimplePredicate field="double(11)" operator="lessOrEqual" value="4.5"/>
																<ScoreDistribution value="0" recordCount="0"/>
																<ScoreDistribution value="1" recordCount="1"/>
															</Node>
															<Node score="0" recordCount="1">
																<True/>
																<ScoreDistribution value="0" recordCount="1"/>
																<ScoreDistribution value="1" recordCount="0"/>
															</Node>
														</Node>
														<Node score="1" recordCount="5">
															<True/>
															<ScoreDistribution value="0" recordCount="0"/>
															<ScoreDistribution value="1" recordCount="5"/>
														</Node>
													</Node>
													<Node score="0" recordCount="2">
														<True/>
														<ScoreDistribution value="0" recordCount="2"/>
														<ScoreDistribution value="1" recordCount="0"/>
													</Node>
												</Node>
												<Node score="0" recordCount="3">
													<True/>
													<ScoreDistribution value="0" recordCount="3"/>
													<ScoreDistribution value="1" recordCount="0"/>
												</Node>
											</Node>
											<Node score="0" recordCount="49">
												<True/>
												<ScoreDistribution value="0" recordCount="49"/>
												<ScoreDistribution value="1" recordCount="0"/>
											</Node>
										</Node>
										<Node score="1" recordCount="7">
											<True/>
											<ScoreDistribution value="0" recordCount="0"/>
											<ScoreDistribution value="1" recordCount="7"/>
										</Node>
									</Node>
									<Node>
										<SimplePredicate field="double(61)" operator="lessOrEqual" value="0.5"/>
										<Node>
											<SimplePredicate field="double(44)" operator="lessOrEqual" value="1.5"/>
											<Node score="0" recordCount="4">
												<SimplePredicate field="double(28)" operator="lessOrEqual" value="25.0"/>
												<ScoreDistribution value="0" recordCount="4"/>
												<ScoreDistribution value="1" recordCount="0"/>
											</Node>
											<Node score="1" recordCount="1">
												<True/>
												<ScoreDistribution value="0" recordCount="0"/>
												<ScoreDistribution value="1" recordCount="1"/>
											</Node>
										</Node>
										<Node>
											<SimplePredicate field="double(66)" operator="lessOrEqual" value="0.5"/>
											<Node>
												<SimplePredicate field="double(115)" operator="lessOrEqual" value="37.900001525878906"/>
												<Node>
													<SimplePredicate field="double(12)" operator="lessOrEqual" value="3.5"/>
													<Node>
														<SimplePredicate field="double(54)" operator="lessOrEqual" value="-1.5"/>
														<Node>
															<SimplePredicate field="double(62)" operator="lessOrEqual" value="0.5"/>
															<Node score="0" recordCount="2">
																<SimplePredicate field="double(42)" operator="lessOrEqual" value="1.5"/>
																<ScoreDistribution value="0" recordCount="2"/>
																<ScoreDistribution value="1" recordCount="0"/>
															</Node>
															<Node score="0" recordCount="1">
																<SimplePredicate field="double(29)" operator="lessOrEqual" value="12.5"/>
																<ScoreDistribution value="0" recordCount="1"/>
																<ScoreDistribution value="1" recordCount="0"/>
															</Node>
															<Node>
																<SimplePredicate field="double(59)" operator="lessOrEqual" value="0.5"/>
																<Node score="0" recordCount="2">
																	<SimplePredicate field="double(39)" operator="lessOrEqual" value="3.5"/>
																	<ScoreDistribution value="0" recordCount="2"/>
																	<ScoreDistribution value="1" recordCount="0"/>
																</Node>
																<Node score="1" recordCount="3">
																	<True/>
																	<ScoreDistribution value="0" recordCount="0"/>
																	<ScoreDistribution value="1" recordCount="3"/>
																</Node>
															</Node>
															<Node score="1" recordCount="15">
																<True/>
																<ScoreDistribution value="0" recordCount="0"/>
																<ScoreDistribution value="1" recordCount="15"/>
															</Node>
														</Node>
														<Node score="0" recordCount="3">
															<True/>
															<ScoreDistribution value="0" recordCount="3"/>
															<ScoreDistribution value="1" recordCount="0"/>
														</Node>
													</Node>
													<Node score="1" recordCount="13">
														<True/>
														<ScoreDistribution value="0" recordCount="0"/>
														<ScoreDistribution value="1" recordCount="13"/>
													</Node>
												</Node>
												<Node score="0" recordCount="2">
													<SimplePredicate field="double(22)" operator="lessOrEqual" value="3.0"/>
													<ScoreDistribution value="0" recordCount="2"/>
													<ScoreDistribution value="1" recordCount="0"/>
												</Node>
												<Node score="1" recordCount="1">
													<True/>
													<ScoreDistribution value="0" recordCount="0"/>
													<ScoreDistribution value="1" recordCount="1"/>
												</Node>
											</Node>
											<Node score="0" recordCount="2">
												<True/>
												<ScoreDistribution value="0" recordCount="2"/>
												<ScoreDistribution value="1" recordCount="0"/>
											</Node>
										</Node>
										<Node score="1" recordCount="15">
											<True/>
											<ScoreDistribution value="0" recordCount="0"/>
											<ScoreDistribution value="1" recordCount="15"/>
										</Node>
									</Node>
									<Node score="0" recordCount="4">
										<True/>
										<ScoreDistribution value="0" recordCount="4"/>
										<ScoreDistribution value="1" recordCount="0"/>
									</Node>
								</Node>
								<Node>
									<SimplePredicate field="double(116)" operator="lessOrEqual" value="16.25"/>
									<Node>
										<SimplePredicate field="double(80)" operator="lessOrEqual" value="0.5"/>
										<Node score="0" recordCount="14">
											<SimplePredicate field="double(1)" operator="lessOrEqual" value="1979.5"/>
											<ScoreDistribution value="0" recordCount="14"/>
											<ScoreDistribution value="1" recordCount="0"/>
										</Node>
										<Node score="1" recordCount="3">
											<True/>
											<ScoreDistribution value="0" recordCount="0"/>
											<ScoreDistribution value="1" recordCount="3"/>
										</Node>
									</Node>
									<Node score="1" recordCount="3">
										<True/>
										<ScoreDistribution value="0" recordCount="0"/>
										<ScoreDistribution value="1" recordCount="3"/>
									</Node>
								</Node>
								<Node score="1" recordCount="21">
									<SimplePredicate field="double(41)" operator="lessOrEqual" value="1.5"/>
									<ScoreDistribution value="0" recordCount="0"/>
									<ScoreDistribution value="1" recordCount="21"/>
								</Node>
								<Node score="0" recordCount="2">
									<True/>
									<ScoreDistribution value="0" recordCount="2"/>
									<ScoreDistribution value="1" recordCount="0"/>
								</Node>
							</Node>
							<Node>
								<SimplePredicate field="double(55)" operator="lessOrEqual" value="-1.5"/>
								<Node>
									<SimplePredicate field="double(47)" operator="lessOrEqual" value="2.0"/>
									<Node>
										<SimplePredicate field="double(177)" operator="lessOrEqual" value="4.349999904632568"/>
										<Node score="0" recordCount="54">
											<SimplePredicate field="double(17)" operator="lessOrEqual" value="1.5"/>
											<ScoreDistribution value="0" recordCount="54"/>
											<ScoreDistribution value="1" recordCount="0"/>
										</Node>
										<Node>
											<SimplePredicate field="double(92)" operator="lessOrEqual" value="-1.5"/>
											<Node>
												<SimplePredicate field="double(35)" operator="lessOrEqual" value="0.5"/>
												<Node>
													<SimplePredicate field="double(5)" operator="lessOrEqual" value="85.25"/>
													<Node>
														<SimplePredicate field="double(31)" operator="lessOrEqual" value="-1.0"/>
														<Node score="0" recordCount="24">
															<SimplePredicate field="double(40)" operator="lessOrEqual" value="1.5"/>
															<ScoreDistribution value="0" recordCount="24"/>
															<ScoreDistribution value="1" recordCount="0"/>
														</Node>
														<Node>
															<SimplePredicate field="double(11)" operator="lessOrEqual" value="3.5"/>
															<Node>
																<SimplePredicate field="double(28)" operator="lessOrEqual" value="-0.5"/>
																<Node>
																	<SimplePredicate field="double(21)" operator="lessOrEqual" value="2.5"/>
																	<Node score="0" recordCount="2">
																		<SimplePredicate field="double(44)" operator="lessOrEqual" value="2.5"/>
																		<ScoreDistribution value="0" recordCount="2"/>
																		<ScoreDistribution value="1" recordCount="0"/>
																	</Node>
																	<Node score="1" recordCount="2">
																		<True/>
																		<ScoreDistribution value="0" recordCount="0"/>
																		<ScoreDistribution value="1" recordCount="2"/>
																	</Node>
																</Node>
																<Node score="0" recordCount="3">
																	<True/>
																	<ScoreDistribution value="0" recordCount="3"/>
																	<ScoreDistribution value="1" recordCount="0"/>
																</Node>
															</Node>
															<Node score="0" recordCount="3">
																<True/>
																<ScoreDistribution value="0" recordCount="3"/>
																<ScoreDistribution value="1" recordCount="0"/>
															</Node>
														</Node>
														<Node score="0" recordCount="16">
															<True/>
															<ScoreDistribution value="0" recordCount="16"/>
															<ScoreDistribution value="1" recordCount="0"/>
														</Node>
													</Node>
													<Node score="0" recordCount="21">
														<True/>
														<ScoreDistribution value="0" recordCount="21"/>
														<ScoreDistribution value="1" recordCount="0"/>
													</Node>
												</Node>
												<Node score="0" recordCount="1">
													<SimplePredicate field="double(69)" operator="lessOrEqual" value="-1.5"/>
